{
    "levels": [
        {
            "inputs": [0, 0, 0, 0, 0],
            "outputs": [0, 0, 0, 0, 0, 0],
            "biases": [0.14114413154625757, 0.3021793315185721, 0.36331088163658487, 0.2547314730579352, 0.27145688700371656, 0.029072638707847855],
            "weights": [
                [-0.372543187538518, -0.16481653798780205, 0.15559658925266803, 0.273012939663292, -0.15881207568949635, -0.007205216528825109],
                [-0.21295048402051392, 0.038025959476011416, -0.3652460318938726, 0.2594087058783977, 0.06701399281467502, -0.3222190525949469],
                [0.07773422515801597, -0.1952375535795065, 0.003428796870463671, 0.11246584744963029, -0.027782892965173916, 0.08803442087559121],
                [-0.18099263933697124, -0.09075845977810576, 0.18701446452367268, -0.13984330219831437, 0.26297692742082596, 0.20307642642730697],
                [0.16227754918860768, -0.0156274541404791, -0.07395294236466352, -0.09216314996916336, 0.3344055998580956, 0.14693838460213882]
            ]
        },
        {
            "inputs": [0, 0, 0, 0, 0, 0],
            "outputs": [1, 0, 0, 0],
            "biases": [-0.11443147388197089, 0.07554100503653892, 0.02052933305313967, 0.35955879510587424],
            "weights": [
                [0.5630088280632521, -0.07897561816282732, 0.26378008615585136, -0.02984454824481604],
                [-0.1993475477603876, -0.15308372663751005, -0.27341669201857427, -0.19937816462898017],
                [-0.14274149454515778, -0.3506146983795514, 0.18808200580449788, 0.34345075045070944],
                [-0.24036059561854523, -0.3269052048956626, 0.29979994647010166, 0.5328254107562551],
                [0.07246292522658904, -0.4124056492379927, 0.09735792388009173, 0.12689369312258125],
                [0.1276484043591628, 0.23197871970427575, -0.026456347751556752, 0.20149455711952421]
            ]
        }
    ]
}
